<?xml version="1.0"?>
<opencv_storage>
<cascade type_id="opencv-haar-classifier">
  <size>
    20 20</size>
  <stages>
    <_>
      <trees>
        <_>
          <_>
            <feature>
              <rects>
                <_>
                  13 0 7 12 -1.</_>
                <_>
                  10 3 7 6 2.</_></rects>
              <tilted>1</tilted></feature>
            <threshold>-2.2117778658866882e-001</threshold>
            <left_val>9.2000001668930054e-001</left_val>
            <right_val>-9.5555555820465088e-001</right_val></_></_>
        <_>
          <_>
            <feature>
              <rects>
                <_>
                  5 14 9 2 -1.</_>
                <_>
                  5 15 9 1 2.</_></rects>
              <tilted>0</tilted></feature>
            <threshold>5.3716786205768585e-003</threshold>
            <left_val>-9.5173418521881104e-001</left_val>
            <right_val>7.5121462345123291e-001</right_val></_></_></trees>
      <stage_threshold>-2.0434096455574036e-001</stage_threshold>
      <parent>-1</parent>
      <next>-1</next></_>
    <_>
      <trees>
        <_>
          <_>
            <feature>
              <rects>
                <_>
                  8 0 12 7 -1.</_>
                <_>
                  11 3 6 7 2.</_></rects>
              <tilted>1</tilted></feature>
            <threshold>-2.5556445121765137e-001</threshold>
            <left_val>9.6194505691528320e-001</left_val>
            <right_val>-9.2233008146286011e-001</right_val></_></_>
        <_>
          <_>
            <feature>
              <rects>
                <_>
                  8 0 12 8 -1.</_>
                <_>
                  11 3 6 8 2.</_></rects>
              <tilted>1</tilted></feature>
            <threshold>-1.8824276328086853e-001</threshold>
            <left_val>6.7969423532485962e-001</left_val>
            <right_val>-9.1243910789489746e-001</right_val></_></_>
        <_>
          <_>
            <feature>
              <rects>
                <_>
                  12 0 8 12 -1.</_>
                <_>
                  9 3 8 6 2.</_></rects>
              <tilted>1</tilted></feature>
            <threshold>-2.8325873613357544e-001</threshold>
            <left_val>8.3072847127914429e-001</left_val>
            <right_val>-6.9808053970336914e-001</right_val></_></_>
        <_>
          <_>
            <feature>
              <rects>
                <_>
                  8 8 6 4 -1.</_>
                <_>
                  11 8 3 4 2.</_></rects>
              <tilted>0</tilted></feature>
            <threshold>8.3538697799667716e-004</threshold>
            <left_val>5.1327192783355713e-001</left_val>
            <right_val>-9.9816173315048218e-001</right_val></_></_>
        <_>
          <_>
            <feature>
              <rects>
                <_>
                  5 9 10 2 -1.</_>
                <_>
                  10 9 5 2 2.</_></rects>
              <tilted>0</tilted></feature>
            <threshold>-2.6893109316006303e-004</threshold>
            <left_val>-9.9562197923660278e-001</left_val>
            <right_val>3.7676939368247986e-001</right_val></_></_></trees>
      <stage_threshold>-1.6428084373474121e+000</stage_threshold>
      <parent>0</parent>
      <next>-1</next></_>
    <_>
      <trees>
        <_>
          <_>
            <feature>
              <rects>
                <_>
                  9 2 2 7 -1.</_>
                <_>
                  9 2 1 7 2.</_></rects>
              <tilted>1</tilted></feature>
            <threshold>2.5978203862905502e-002</threshold>
            <left_val>-8.5470086336135864e-001</left_val>
            <right_val>8.6206895112991333e-001</right_val></_></_>
        <_>
          <_>
            <feature>
              <rects>
                <_>
                  16 9 2 7 -1.</_>
                <_>
                  16 9 1 7 2.</_></rects>
              <tilted>1</tilted></feature>
            <threshold>-2.5723583996295929e-002</threshold>
            <left_val>8.1777018308639526e-001</left_val>
            <right_val>-8.0356907844543457e-001</right_val></_></_>
        <_>
          <_>
            <feature>
              <rects>
                <_>
                  12 7 4 7 -1.</_>
                <_>
                  13 7 2 7 2.</_></rects>
              <tilted>0</tilted></feature>
            <threshold>-8.2669872790575027e-003</threshold>
            <left_val>7.3232150077819824e-001</left_val>
            <right_val>-6.8095612525939941e-001</right_val></_></_></trees>
      <stage_threshold>-9.2594844102859497e-001</stage_threshold>
      <parent>1</parent>
      <next>-1</next></_>
    <_>
      <trees>
        <_>
          <_>
            <feature>
              <rects>
                <_>
                  12 1 7 12 -1.</_>
                <_>
                  9 4 7 6 2.</_></rects>
              <tilted>1</tilted></feature>
            <threshold>-2.7126854658126831e-001</threshold>
            <left_val>7.5889325141906738e-001</left_val>
            <right_val>-8.7695747613906860e-001</right_val></_></_>
        <_>
          <_>
            <feature>
              <rects>
                <_>
                  2 4 15 3 -1.</_>
                <_>
                  7 5 5 1 9.</_></rects>
              <tilted>0</tilted></feature>
            <threshold>-6.4441107213497162e-002</threshold>
            <left_val>5.8055210113525391e-001</left_val>
            <right_val>-8.7564468383789063e-001</right_val></_></_>
        <_>
          <_>
            <feature>
              <rects>
                <_>
                  6 7 6 6 -1.</_>
                <_>
                  8 9 2 2 9.</_></rects>
              <tilted>0</tilted></feature>
            <threshold>-1.6957269981503487e-003</threshold>
            <left_val>-9.9755686521530151e-001</left_val>
            <right_val>4.1024890542030334e-001</right_val></_></_>
        <_>
          <_>
            <feature>
              <rects>
                <_>
                  4 10 6 3 -1.</_>
                <_>
                  3 11 6 1 3.</_></rects>
              <tilted>1</tilted></feature>
            <threshold>1.2351710349321365e-002</threshold>
            <left_val>-7.1864104270935059e-001</left_val>
            <right_val>5.9392410516738892e-001</right_val></_></_>
        <_>
          <_>
            <feature>
              <rects>
                <_>
                  6 7 6 6 -1.</_>
                <_>
                  8 9 2 2 9.</_></rects>
              <tilted>0</tilted></feature>
            <threshold>6.8085198290646076e-004</threshold>
            <left_val>4.3555742502212524e-001</left_val>
            <right_val>-9.9366337060928345e-001</right_val></_></_></trees>
      <stage_threshold>-1.6254369020462036e+000</stage_threshold>
      <parent>2</parent>
      <next>-1</next></_>
    <_>
      <trees>
        <_>
          <_>
            <feature>
              <rects>
                <_>
                  8 0 12 8 -1.</_>
                <_>
                  11 3 6 8 2.</_></rects>
              <tilted>1</tilted></feature>
            <threshold>-3.6402389407157898e-001</threshold>
            <left_val>7.3696145124716406e-001</left_val>
            <right_val>-7.5599582898854290e-001</right_val></_></_>
        <_>
          <_>
            <feature>
              <rects>
                <_>
                  7 7 6 1 -1.</_>
                <_>
                  9 9 2 1 3.</_></rects>
              <tilted>1</tilted></feature>
            <threshold>-3.8022687658667564e-004</threshold>
            <left_val>-9.7462446370443989e-001</left_val>
            <right_val>4.4437692448987176e-001</right_val></_></_>
        <_>
          <_>
            <feature>
              <rects>
                <_>
                  11 1 6 18 -1.</_>
                <_>
                  13 7 2 6 9.</_></rects>
              <tilted>0</tilted></feature>
            <threshold>-2.6890516281127930e-001</threshold>
            <left_val>5.8575263290681234e-001</left_val>
            <right_val>-7.2007744577936605e-001</right_val></_></_>
        <_>
          <_>
            <feature>
              <rects>
                <_>
                  6 9 5 3 -1.</_>
                <_>
                  5 10 5 1 3.</_></rects>
              <tilted>1</tilted></feature>
            <threshold>-1.5637513250112534e-002</threshold>
            <left_val>7.5872023206072126e-001</left_val>
            <right_val>-6.3739271223222227e-001</right_val></_></_>
        <_>
          <_>
            <feature>
              <rects>
                <_>
                  7 7 6 1 -1.</_>
                <_>
                  9 9 2 1 3.</_></rects>
              <tilted>1</tilted></feature>
            <threshold>2.0941405091434717e-004</threshold>
            <left_val>4.7060561124967881e-001</left_val>
            <right_val>-9.9346709106102582e-001</right_val></_></_></trees>
      <stage_threshold>-1.1984834671020508e+000</stage_threshold>
      <parent>3</parent>
      <next>-1</next></_>
    <_>
      <trees>
        <_>
          <_>
            <feature>
              <rects>
                <_>
                  12 1 1 12 -1.</_>
                <_>
                  8 5 1 4 3.</_></rects>
              <tilted>1</tilted></feature>
            <threshold>-5.4496929049491882e-002</threshold>
            <left_val>6.3813229571984253e-001</left_val>
            <right_val>-8.2167042889391562e-001</right_val></_></_>
        <_>
          <_>
            <feature>
              <rects>
                <_>
                  11 11 4 4 -1.</_>
                <_>
                  11 11 2 2 2.</_>
                <_>
                  13 13 2 2 2.</_></rects>
              <tilted>0</tilted></feature>
            <threshold>2.4420092813670635e-003</threshold>
            <left_val>-8.7149933501157506e-001</left_val>
            <right_val>4.9408311543302730e-001</right_val></_></_>
        <_>
          <_>
            <feature>
              <rects>
                <_>
                  13 1 6 3 -1.</_>
                <_>
                  12 2 6 1 3.</_></rects>
              <tilted>1</tilted></feature>
            <threshold>1.6130853444337845e-002</threshold>
            <left_val>-7.4822255515374569e-001</left_val>
            <right_val>6.0804970814162818e-001</right_val></_></_>
        <_>
          <_>
            <feature>
              <rects>
                <_>
                  9 6 4 4 -1.</_>
                <_>
                  10 7 2 4 2.</_></rects>
              <tilted>1</tilted></feature>
            <threshold>-5.3730548825114965e-004</threshold>
            <left_val>-9.9296532798757176e-001</left_val>
            <right_val>3.4759168910981342e-001</right_val></_></_></trees>
      <stage_threshold>-7.3752838373184204e-001</stage_threshold>
      <parent>4</parent>
      <next>-1</next></_>
    <_>
      <trees>
        <_>
          <_>
            <feature>
              <rects>
                <_>
                  8 0 12 8 -1.</_>
                <_>
                  11 3 6 8 2.</_></rects>
              <tilted>1</tilted></feature>
            <threshold>-3.0907911062240601e-001</threshold>
            <left_val>5.4295532646047906e-001</left_val>
            <right_val>-8.7530562347189045e-001</right_val></_></_>
        <_>
          <_>
            <feature>
              <rects>
                <_>
                  6 12 4 4 -1.</_>
                <_>
                  6 12 2 2 2.</_>
                <_>
                  8 14 2 2 2.</_></rects>
              <tilted>0</tilted></feature>
            <threshold>-4.0754422661848366e-004</threshold>
            <left_val>3.5299124067213478e-001</left_val>
            <right_val>-9.2983762265821179e-001</right_val></_></_>
        <_>
          <_>
            <feature>
              <rects>
                <_>
                  1 11 4 2 -1.</_>
                <_>
                  1 11 2 1 2.</_>
                <_>
                  3 12 2 1 2.</_></rects>
              <tilted>0</tilted></feature>
            <threshold>1.7593716620467603e-004</threshold>
            <left_val>-8.2457897609173703e-001</left_val>
            <right_val>3.7708437961861985e-001</right_val></_></_>
        <_>
          <_>
            <feature>
              <rects>
                <_>
                  8 6 4 8 -1.</_>
                <_>
                  10 6 2 8 2.</_></rects>
              <tilted>0</tilted></feature>
            <threshold>5.8469560462981462e-004</threshold>
            <left_val>3.3129862497003687e-001</left_val>
            <right_val>-9.8946044927048471e-001</right_val></_></_></trees>
      <stage_threshold>-1.0155947208404541e+000</stage_threshold>
      <parent>5</parent>
      <next>-1</next></_>
    <_>
      <trees>
        <_>
          <_>
            <feature>
              <rects>
                <_>
                  8 3 3 5 -1.</_>
                <_>
                  9 4 1 5 3.</_></rects>
              <tilted>1</tilted></feature>
            <threshold>-2.0392786711454391e-002</threshold>
            <left_val>6.3758389261744752e-001</left_val>
            <right_val>-7.1878279118574329e-001</right_val></_></_>
        <_>
          <_>
            <feature>
              <rects>
                <_>
                  11 7 4 2 -1.</_>
                <_>
                  12 8 2 2 2.</_></rects>
              <tilted>1</tilted></feature>
            <threshold>-3.6699179327115417e-004</threshold>
            <left_val>-9.9351667340334870e-001</left_val>
            <right_val>3.4552308887246869e-001</right_val></_></_>
        <_>
          <_>
            <feature>
              <rects>
                <_>
                  13 5 2 6 -1.</_>
                <_>
                  13 5 1 3 2.</_>
                <_>
                  14 8 1 3 2.</_></rects>
              <tilted>0</tilted></feature>
            <threshold>-1.6592633910477161e-003</threshold>
            <left_val>4.6526298907850361e-001</left_val>
            <right_val>-7.6143758873699252e-001</right_val></_></_>
        <_>
          <_>
            <feature>
              <rects>
                <_>
                  2 4 18 15 -1.</_>
                <_>
                  8 9 6 5 9.</_></rects>
              <tilted>0</tilted></feature>
            <threshold>-6.9289040565490723e-001</threshold>
            <left_val>5.2415092670794472e-001</left_val>
            <right_val>-7.8255354695228674e-001</right_val></_></_>
        <_>
          <_>
            <feature>
              <rects>
                <_>
                  10 6 5 2 -1.</_>
                <_>
                  10 6 5 1 2.</_></rects>
              <tilted>1</tilted></feature>
            <threshold>-3.6447553429752588e-004</threshold>
            <left_val>-1.</left_val>
            <right_val>2.5847965768269648e-001</right_val></_></_></trees>
      <stage_threshold>-1.6587711572647095e+000</stage_threshold>
      <parent>6</parent>
      <next>-1</next></_>
    <_>
      <trees>
        <_>
          <_>
            <feature>
              <rects>
                <_>
                  2 4 15 3 -1.</_>
                <_>
                  7 5 5 1 9.</_></rects>
              <tilted>0</tilted></feature>
            <threshold>-1.0970135033130646e-001</threshold>
            <left_val>3.8539898132427564e-001</left_val>
            <right_val>-7.7311960542540825e-001</right_val></_></_>
        <_>
          <_>
            <feature>
              <rects>
                <_>
                  4 11 4 4 -1.</_>
                <_>
                  4 11 2 2 2.</_>
                <_>
                  6 13 2 2 2.</_></rects>
              <tilted>0</tilted></feature>
            <threshold>-4.3611796572804451e-003</threshold>
            <left_val>5.1777297956465185e-001</left_val>
            <right_val>-6.9756149194177297e-001</right_val></_></_>
        <_>
          <_>
            <feature>
              <rects>
                <_>
                  6 8 8 5 -1.</_>
                <_>
                  10 8 4 5 2.</_></rects>
              <tilted>0</tilted></feature>
            <threshold>-9.5278117805719376e-004</threshold>
            <left_val>-1.</left_val>
            <right_val>3.0139323644713462e-001</right_val></_></_>
        <_>
          <_>
            <feature>
              <rects>
                <_>
                  13 8 2 6 -1.</_>
                <_>
                  13 8 1 3 2.</_>
                <_>
                  14 11 1 3 2.</_></rects>
              <tilted>0</tilted></feature>
            <threshold>1.1774677841458470e-004</threshold>
            <left_val>-8.7527380962907519e-001</left_val>
            <right_val>3.7052234230860726e-001</right_val></_></_></trees>
      <stage_threshold>-8.8604307174682617e-001</stage_threshold>
      <parent>7</parent>
      <next>-1</next></_>
    <_>
      <trees>
        <_>
          <_>
            <feature>
              <rects>
                <_>
                  13 2 6 6 -1.</_>
                <_>
                  11 4 6 2 3.</_></rects>
              <tilted>1</tilted></feature>
            <threshold>-7.7821642160415649e-002</threshold>
            <left_val>5.5691056910568870e-001</left_val>
            <right_val>-7.4229074889869096e-001</right_val></_></_>
        <_>
          <_>
            <feature>
              <rects>
                <_>
                  3 10 12 2 -1.</_>
                <_>
                  9 10 6 2 2.</_></rects>
              <tilted>0</tilted></feature>
            <threshold>-2.2854212147649378e-005</threshold>
            <left_val>3.8371578751180269e-001</left_val>
            <right_val>-9.0593919333933937e-001</right_val></_></_>
        <_>
          <_>
            <feature>
              <rects>
                <_>
                  8 8 6 2 -1.</_>
                <_>
                  11 8 3 2 2.</_></rects>
              <tilted>0</tilted></feature>
            <threshold>1.8507515778765082e-004</threshold>
            <left_val>3.2620298362245892e-001</left_val>
            <right_val>-9.7194048912993347e-001</right_val></_></_>
        <_>
          <_>
            <feature>
              <rects>
                <_>
                  5 5 5 3 -1.</_>
                <_>
                  5 6 5 1 3.</_></rects>
              <tilted>0</tilted></feature>
            <threshold>-7.5516529614105821e-004</threshold>
            <left_val>4.0160964240787600e-001</left_val>
            <right_val>-8.3187244854010645e-001</right_val></_></_></trees>
      <stage_threshold>-9.2041730880737305e-001</stage_threshold>
      <parent>8</parent>
      <next>-1</next></_>
    <_>
      <trees>
        <_>
          <_>
            <feature>
              <rects>
                <_>
                  1 1 15 12 -1.</_>
                <_>
                  6 5 5 4 9.</_></rects>
              <tilted>0</tilted></feature>
            <threshold>-4.4724655151367188e-001</threshold>
            <left_val>3.0658105939004521e-001</left_val>
            <right_val>-7.6061776061776565e-001</right_val></_></_>
        <_>
          <_>
            <feature>
              <rects>
                <_>
                  6 8 6 6 -1.</_>
                <_>
                  9 8 3 6 2.</_></rects>
              <tilted>0</tilted></feature>
            <threshold>3.8683786988258362e-004</threshold>
            <left_val>3.1610672695379566e-001</left_val>
            <right_val>-9.9173941063245852e-001</right_val></_></_>
        <_>
          <_>
            <feature>
              <rects>
                <_>
                  11 5 3 6 -1.</_>
                <_>
                  11 5 3 3 2.</_></rects>
              <tilted>1</tilted></feature>
            <threshold>-8.2839140668511391e-004</threshold>
            <left_val>-9.6144157316834522e-001</left_val>
            <right_val>2.5222976249353618e-001</right_val></_></_></trees>
      <stage_threshold>-4.3292859196662903e-001</stage_threshold>
      <parent>9</parent>
      <next>-1</next></_>
    <_>
      <trees>
        <_>
          <_>
            <feature>
              <rects>
                <_>
                  0 9 20 6 -1.</_>
                <_>
                  5 9 10 6 2.</_></rects>
              <tilted>0</tilted></feature>
            <threshold>-2.9240801930427551e-001</threshold>
            <left_val>7.9999999999999849e-001</left_val>
            <right_val>-6.2056074766356717e-001</right_val></_></_>
        <_>
          <_>
            <feature>
              <rects>
                <_>
                  4 6 6 4 -1.</_>
                <_>
                  4 7 6 2 2.</_></rects>
              <tilted>0</tilted></feature>
            <threshold>-5.7924706197809428e-005</threshold>
            <left_val>4.7336428977736750e-001</left_val>
            <right_val>-9.5978988160703216e-001</right_val></_></_>
        <_>
          <_>
            <feature>
              <rects>
                <_>
                  10 6 4 2 -1.</_>
                <_>
                  10 6 2 2 2.</_></rects>
              <tilted>1</tilted></feature>
            <threshold>2.6722502661868930e-004</threshold>
            <left_val>3.4386617293916039e-001</left_val>
            <right_val>-9.9157577720363066e-001</right_val></_></_>
        <_>
          <_>
            <feature>
              <rects>
                <_>
                  5 12 3 3 -1.</_>
                <_>
                  6 12 1 3 3.</_></rects>
              <tilted>0</tilted></feature>
            <threshold>-1.8141850887332112e-005</threshold>
            <left_val>4.3192700301123971e-001</left_val>
            <right_val>-9.1749434130997964e-001</right_val></_></_></trees>
      <stage_threshold>-8.0455744266510010e-001</stage_threshold>
      <parent>10</parent>
      <next>-1</next></_>
    <_>
      <trees>
        <_>
          <_>
            <feature>
              <rects>
                <_>
                  14 10 4 4 -1.</_>
                <_>
                  15 10 2 4 2.</_></rects>
              <tilted>0</tilted></feature>
            <threshold>4.7516510821878910e-003</threshold>
            <left_val>-8.6000000000000787e-001</left_val>
            <right_val>4.7999999999999771e-001</right_val></_></_>
        <_>
          <_>
            <feature>
              <rects>
                <_>
                  1 7 4 7 -1.</_>
                <_>
                  2 7 2 7 2.</_></rects>
              <tilted>0</tilted></feature>
            <threshold>9.8429359495639801e-003</threshold>
            <left_val>-7.2846307633629803e-001</left_val>
            <right_val>7.2666559290634369e-001</right_val></_></_>
        <_>
          <_>
            <feature>
              <rects>
                <_>
                  12 7 4 2 -1.</_>
                <_>
                  12 7 2 1 2.</_>
                <_>
                  14 8 2 1 2.</_></rects>
              <tilted>0</tilted></feature>
            <threshold>-2.3966284061316401e-004</threshold>
            <left_val>5.6980090353658608e-001</left_val>
            <right_val>-8.6574102766931038e-001</right_val></_></_>
        <_>
          <_>
            <feature>
              <rects>
                <_>
                  6 8 2 8 -1.</_>
                <_>
                  6 8 1 4 2.</_>
                <_>
                  7 12 1 4 2.</_></rects>
              <tilted>0</tilted></feature>
            <threshold>-4.2906729504466057e-004</threshold>
            <left_val>5.0972247590826103e-001</left_val>
            <right_val>-8.9804038453252300e-001</right_val></_></_></trees>
      <stage_threshold>-6.0448163747787476e-001</stage_threshold>
      <parent>11</parent>
      <next>-1</next></_></stages></cascade>
</opencv_storage>
